digraph Tree {
node [shape=box, style="filled", color="black"] ;
0 [label="Age <= -0.273\ngini = 0.667\nsamples = 2168\nvalue = [734, 721, 713]", fillcolor="#fffefd"] ;
1 [label="HDL <= -0.171\ngini = 0.353\nsamples = 683\nvalue = [19, 533, 131]", fillcolor="#6feca3"] ;
0 -> 1 [labeldistance=2.5, labelangle=45, headlabel="True"] ;
11 [label="gini = 0.497\nsamples = 354\nvalue = [19, 225, 110]", fillcolor="#a2f3c4"] ;
1 -> 11 ;
12 [label="gini = 0.12\nsamples = 329\nvalue = [0, 308, 21]", fillcolor="#46e78a"] ;
1 -> 12 ;
2 [label="isDiabetic <= 0.5\ngini = 0.599\nsamples = 1485\nvalue = [715, 188, 582]", fillcolor="#fbece2"] ;
0 -> 2 [labeldistance=2.5, labelangle=-45, headlabel="False"] ;
3 [label="Systolic <= -1.202\ngini = 0.568\nsamples = 399\nvalue = [49, 124, 226]", fillcolor="#d0b6f5"] ;
2 -> 3 ;
9 [label="gini = 0.0\nsamples = 49\nvalue = [0, 49, 0]", fillcolor="#39e581"] ;
3 -> 9 ;
10 [label="isBlack <= 0.5\ngini = 0.518\nsamples = 350\nvalue = [49, 75, 226]", fillcolor="#ba92f1"] ;
3 -> 10 ;
13 [label="gini = 0.426\nsamples = 240\nvalue = [36, 28, 176]", fillcolor="#a977ed"] ;
10 -> 13 ;
14 [label="HDL <= -1.144\ngini = 0.597\nsamples = 110\nvalue = [13, 47, 50]", fillcolor="#f9f6fe"] ;
10 -> 14 ;
15 [label="gini = 0.526\nsamples = 21\nvalue = [13, 2, 6]", fillcolor="#f3c4a3"] ;
14 -> 15 ;
16 [label="gini = 0.5\nsamples = 89\nvalue = [0, 45, 44]", fillcolor="#fbfefc"] ;
14 -> 16 ;
4 [label="Age <= 0.559\ngini = 0.513\nsamples = 1086\nvalue = [666, 64, 356]", fillcolor="#f4c9ab"] ;
2 -> 4 ;
5 [label="Systolic <= 0.476\ngini = 0.594\nsamples = 431\nvalue = [172, 51, 208]", fillcolor="#ede3fb"] ;
4 -> 5 ;
7 [label="gini = 0.481\nsamples = 227\nvalue = [23, 50, 154]", fillcolor="#b58bf0"] ;
5 -> 7 ;
8 [label="Systolic <= 1.114\ngini = 0.396\nsamples = 204\nvalue = [149, 1, 54]", fillcolor="#efaf82"] ;
5 -> 8 ;
17 [label="gini = 0.322\nsamples = 165\nvalue = [132, 1, 32]", fillcolor="#eba06a"] ;
8 -> 17 ;
18 [label="gini = 0.492\nsamples = 39\nvalue = [17, 0, 22]", fillcolor="#e2d2f9"] ;
8 -> 18 ;
6 [label="gini = 0.38\nsamples = 655\nvalue = [494, 13, 148]", fillcolor="#eda978"] ;
4 -> 6 ;
}